version: 100
cost-factor: 1
maxid: 44
xsize: 1

B
E
M
S

U0:%x[-1,0]
U1:%x[0,0]
U2:%x[1,0]
U3:%x[-1,0]/%x[0,0]
U4:%x[0,0]/%x[1,0]
U5:%x[-1,0]/%x[1,0]
B

0 B
16 U0:_B-1
20 U0:和
24 U0:服
28 U1:和
32 U1:服
36 U2:_B+1
40 U2:和

-1.1143325886999249
1.7463243763143395
1.0441874800708402
-0.5989933767199744
0.2592813645817224
-1.2067129293156968
-0.8374362741927172
0.3149803808275183
-0.6829158639070669
0.8928405962538785
1.5458091086774324
-0.3984554495321520
0.6627309702628716
-0.8143371896087371
-0.4105359265386888
-0.4024346784736281
1.3128107152408752
-0.3565971167685386
-0.6468729429156159
-0.3093406555567188
0.6314478473243522
0.4688094151723533
-0.7870423214787546
-0.3132149410179432
1.0000066673770367
0.1842007454408377
-0.7489849584568702
-0.4352224543609997
0.2569271307503175
-0.5418450977384161
-0.6683002553157771
0.9532182223038841
0.1472141933621427
0.6922319667046163
-0.5126967096971372
-0.3267494503696202
-0.6396112934868081
1.7314051949744274
-0.6621269463908409
-0.4296669550967703
-0.4232641412734177
1.3426652756229767
-0.6467279955496530
-0.2726731387999001
